digraph Tree {
node [shape=box, style="filled", color="black", fontname="helvetica"] ;
edge [fontname="helvetica"] ;
0 [label="odor_n <= 0.5\ngini = 0.499\nsamples = 5686\nvalue = [2972.0, 2714.0]\nclass = 독", fillcolor="#fdf4ee"] ;
1 [label="stalk-root_c <= 0.5\ngini = 0.286\nsamples = 3190\nvalue = [551, 2639]\nclass = 식용", fillcolor="#62b1ea"] ;
0 -> 1 [labeldistance=2.5, labelangle=45, headlabel="True"] ;
2 [label="stalk-surface-below-ring_y <= 0.5\ngini = 0.134\nsamples = 2817\nvalue = [204, 2613]\nclass = 식용", fillcolor="#48a5e7"] ;
1 -> 2 ;
3 [label="gini = 0.055\nsamples = 2689\nvalue = [76, 2613]\nclass = 식용", fillcolor="#3fa0e6"] ;
2 -> 3 ;
4 [label="gini = 0.0\nsamples = 128\nvalue = [128, 0]\nclass = 독", fillcolor="#e58139"] ;
2 -> 4 ;
5 [label="stalk-surface-below-ring_s <= 0.5\ngini = 0.13\nsamples = 373\nvalue = [347.0, 26.0]\nclass = 독", fillcolor="#e78a48"] ;
1 -> 5 ;
6 [label="gini = 0.0\nsamples = 26\nvalue = [0, 26]\nclass = 식용", fillcolor="#399de5"] ;
5 -> 6 ;
7 [label="gini = 0.0\nsamples = 347\nvalue = [347, 0]\nclass = 독", fillcolor="#e58139"] ;
5 -> 7 ;
8 [label="spore-print-color_r <= 0.5\ngini = 0.058\nsamples = 2496\nvalue = [2421, 75]\nclass = 독", fillcolor="#e6853f"] ;
0 -> 8 [labeldistance=2.5, labelangle=-45, headlabel="False"] ;
9 [label="stalk-surface-below-ring_y <= 0.5\ngini = 0.021\nsamples = 2447\nvalue = [2421, 26]\nclass = 독", fillcolor="#e5823b"] ;
8 -> 9 ;
10 [label="gini = 0.002\nsamples = 2412\nvalue = [2409, 3]\nclass = 독", fillcolor="#e58139"] ;
9 -> 10 ;
11 [label="gini = 0.451\nsamples = 35\nvalue = [12, 23]\nclass = 식용", fillcolor="#a0d0f3"] ;
9 -> 11 ;
12 [label="gini = 0.0\nsamples = 49\nvalue = [0, 49]\nclass = 식용", fillcolor="#399de5"] ;
8 -> 12 ;
}